<?xml version="1.0"?>
<opencv_storage>
<cascade>
  <stageType>BOOST</stageType>
  <featureType>HAAR</featureType>
  <height>24</height>
  <width>32</width>
  <stageParams>
    <boostType>GAB</boostType>
    <minHitRate>9.8500001430511475e-01</minHitRate>
    <maxFalseAlarm>1.7499999701976776e-01</maxFalseAlarm>
    <weightTrimRate>9.4999999999999996e-01</weightTrimRate>
    <maxDepth>1</maxDepth>
    <maxWeakCount>100</maxWeakCount></stageParams>
  <featureParams>
    <maxCatCount>0</maxCatCount>
    <featSize>1</featSize>
    <mode>BASIC</mode></featureParams>
  <stageNum>12</stageNum>
  <stages>
    <!-- stage 0 -->
    <_>
      <maxWeakCount>1</maxWeakCount>
      <stageThreshold>1.</stageThreshold>
      <weakClassifiers>
        <_>
          <internalNodes>
            0 -1 3 -1.4427314745262265e-03</internalNodes>
          <leafValues>
            1. -1.</leafValues></_></weakClassifiers></_>
    <!-- stage 1 -->
    <_>
      <maxWeakCount>3</maxWeakCount>
      <stageThreshold>-4.7576034069061279e-01</stageThreshold>
      <weakClassifiers>
        <_>
          <internalNodes>
            0 -1 111 -4.7805227339267731e-02</internalNodes>
          <leafValues>
            -6.9068539142608643e-01 7.9005527496337891e-01</leafValues></_>
        <_>
          <internalNodes>
            0 -1 24 -1.7492818005848676e-04</internalNodes>
          <leafValues>
            7.9183000326156616e-01 -5.7626795768737793e-01</leafValues></_>
        <_>
          <internalNodes>
            0 -1 23 1.2264755787327886e-04</internalNodes>
          <leafValues>
            -3.1784924864768982e-01 7.9119306802749634e-01</leafValues></_></weakClassifiers></_>
    <!-- stage 2 -->
    <_>
      <maxWeakCount>11</maxWeakCount>
      <stageThreshold>-3.7198594212532043e-01</stageThreshold>
      <weakClassifiers>
        <_>
          <internalNodes>
            0 -1 54 -5.7576596736907959e-02</internalNodes>
          <leafValues>
            8.4251970052719116e-01 -5.7303369045257568e-01</leafValues></_>
        <_>
          <internalNodes>
            0 -1 87 -1.7896393314003944e-02</internalNodes>
          <leafValues>
            7.2963005304336548e-01 -2.8180977702140808e-01</leafValues></_>
        <_>
          <internalNodes>
            0 -1 33 -3.6579662561416626e-01</internalNodes>
          <leafValues>
            8.5839718580245972e-01 -2.4715042114257813e-01</leafValues></_>
        <_>
          <internalNodes>
            0 -1 7 -2.6239613071084023e-03</internalNodes>
          <leafValues>
            -7.2805225849151611e-01 3.4379243850708008e-01</leafValues></_>
        <_>
          <internalNodes>
            0 -1 51 -1.0438138619065285e-02</internalNodes>
          <leafValues>
            -8.8976341485977173e-01 1.9862018525600433e-01</leafValues></_>
        <_>
          <internalNodes>
            0 -1 5 -5.5773675441741943e-01</internalNodes>
          <leafValues>
            -2.2297090291976929e-01 9.6145236492156982e-01</leafValues></_>
        <_>
          <internalNodes>
            0 -1 152 4.3715372157748789e-05</internalNodes>
          <leafValues>
            -1.8201458454132080e-01 7.8623652458190918e-01</leafValues></_>
        <_>
          <internalNodes>
            0 -1 69 -2.3514524102210999e-01</internalNodes>
          <leafValues>
            8.6297273635864258e-01 -2.3727801442146301e-01</leafValues></_>
        <_>
          <internalNodes>
            0 -1 100 1.4449597336351871e-02</internalNodes>
          <leafValues>
            2.8470587730407715e-01 -8.5304152965545654e-01</leafValues></_>
        <_>
          <internalNodes>
            0 -1 41 -1.0232935845851898e-01</internalNodes>
          <leafValues>
            9.2871320247650146e-01 -2.6784998178482056e-01</leafValues></_>
        <_>
          <internalNodes>
            0 -1 97 7.2938010096549988e-02</internalNodes>
          <leafValues>
            -1.5524816513061523e-01 9.0739202499389648e-01</leafValues></_></weakClassifiers></_>
    <!-- stage 3 -->
    <_>
      <maxWeakCount>12</maxWeakCount>
      <stageThreshold>-7.7344369888305664e-01</stageThreshold>
      <weakClassifiers>
        <_>
          <internalNodes>
            0 -1 148 1.5058634802699089e-02</internalNodes>
          <leafValues>
            -5.8234298229217529e-01 5.7763975858688354e-01</leafValues></_>
        <_>
          <internalNodes>
            0 -1 119 -7.1704080255585723e-06</internalNodes>
          <leafValues>
            -9.5207560062408447e-01 1.2449344247579575e-01</leafValues></_>
        <_>
          <internalNodes>
            0 -1 17 -1.8399045802652836e-03</internalNodes>
          <leafValues>
            -8.0005180835723877e-01 1.5238450467586517e-01</leafValues></_>
        <_>
          <internalNodes>
            0 -1 80 1.7031628638505936e-02</internalNodes>
          <leafValues>
            -3.2332697510719299e-01 4.7846239805221558e-01</leafValues></_>
        <_>
          <internalNodes>
            0 -1 157 2.5388591457158327e-03</internalNodes>
          <leafValues>
            2.3767137527465820e-01 -7.8324884176254272e-01</leafValues></_>
        <_>
          <internalNodes>
            0 -1 155 -4.1170665062963963e-03</internalNodes>
          <leafValues>
            -7.1150505542755127e-01 2.2936226427555084e-01</leafValues></_>
        <_>
          <internalNodes>
            0 -1 53 3.1057778745889664e-02</internalNodes>
          <leafValues>
            1.5969023108482361e-01 -8.5600686073303223e-01</leafValues></_>
        <_>
          <internalNodes>
            0 -1 40 -1.7455561086535454e-02</internalNodes>
          <leafValues>
            -6.8624150753021240e-01 2.3943591117858887e-01</leafValues></_>
        <_>
          <internalNodes>
            0 -1 106 -5.7606332120485604e-05</internalNodes>
          <leafValues>
            4.7391918301582336e-01 -4.2196953296661377e-01</leafValues></_>
        <_>
          <internalNodes>
            0 -1 141 1.4431285671889782e-04</internalNodes>
          <leafValues>
            -3.1000345945358276e-01 6.3537985086441040e-01</leafValues></_>
        <_>
          <internalNodes>
            0 -1 96 -1.5136923640966415e-02</internalNodes>
          <leafValues>
            -7.1779656410217285e-01 2.3578351736068726e-01</leafValues></_>
        <_>
          <internalNodes>
            0 -1 71 1.4248538354877383e-04</internalNodes>
          <leafValues>
            -3.4567734599113464e-01 5.7803601026535034e-01</leafValues></_></weakClassifiers></_>
    <!-- stage 4 -->
    <_>
      <maxWeakCount>10</maxWeakCount>
      <stageThreshold>-4.1384649276733398e-01</stageThreshold>
      <weakClassifiers>
        <_>
          <internalNodes>
            0 -1 19 -5.9504824457690120e-04</internalNodes>
          <leafValues>
            4.7593581676483154e-01 -6.0213142633438110e-01</leafValues></_>
        <_>
          <internalNodes>
            0 -1 92 -1.2454371899366379e-02</internalNodes>
          <leafValues>
            5.1798856258392334e-01 -4.1790127754211426e-01</leafValues></_>
        <_>
          <internalNodes>
            0 -1 58 -1.1946742236614227e-01</internalNodes>
          <leafValues>
            3.4453025460243225e-01 -5.9205985069274902e-01</leafValues></_>
        <_>
          <internalNodes>
            0 -1 122 3.9710741839371622e-04</internalNodes>
          <leafValues>
            2.2594586014747620e-01 -8.8057971000671387e-01</leafValues></_>
        <_>
          <internalNodes>
            0 -1 2 3.6652195267379284e-03</internalNodes>
          <leafValues>
            1.7074750363826752e-01 -8.0363565683364868e-01</leafValues></_>
        <_>
          <internalNodes>
            0 -1 37 -4.5834784395992756e-04</internalNodes>
          <leafValues>
            -8.3371049165725708e-01 2.1228660643100739e-01</leafValues></_>
        <_>
          <internalNodes>
            0 -1 50 3.8218303234316409e-04</internalNodes>
          <leafValues>
            1.7997492849826813e-01 -9.3566405773162842e-01</leafValues></_>
        <_>
          <internalNodes>
            0 -1 151 4.5292841969057918e-04</internalNodes>
          <leafValues>
            -2.9769864678382874e-01 6.8613880872726440e-01</leafValues></_>
        <_>
          <internalNodes>
            0 -1 114 -8.0850003287196159e-03</internalNodes>
          <leafValues>
            -8.6095094680786133e-01 2.1057771146297455e-01</leafValues></_>
        <_>
          <internalNodes>
            0 -1 49 -4.0315911173820496e-02</internalNodes>
          <leafValues>
            7.4924951791763306e-01 -2.4237954616546631e-01</leafValues></_></weakClassifiers></_>
    <!-- stage 5 -->
    <_>
      <maxWeakCount>13</maxWeakCount>
      <stageThreshold>-5.4895591735839844e-01</stageThreshold>
      <weakClassifiers>
        <_>
          <internalNodes>
            0 -1 153 3.9088851772248745e-03</internalNodes>
          <leafValues>
            -5.6460177898406982e-01 3.7297296524047852e-01</leafValues></_>
        <_>
          <internalNodes>
            0 -1 131 -4.7198045649565756e-05</internalNodes>
          <leafValues>
            -8.9128518104553223e-01 1.2473927438259125e-01</leafValues></_>
        <_>
          <internalNodes>
            0 -1 10 -1.5278968494385481e-03</internalNodes>
          <leafValues>
            6.2877625226974487e-01 -2.3485581576824188e-01</leafValues></_>
        <_>
          <internalNodes>
            0 -1 39 -3.3541403710842133e-02</internalNodes>
          <leafValues>
            -9.4280928373336792e-01 1.3923291862010956e-01</leafValues></_>
        <_>
          <internalNodes>
            0 -1 12 -1.0491603461559862e-04</internalNodes>
          <leafValues>
            -6.5859800577163696e-01 1.7466780543327332e-01</leafValues></_>
        <_>
          <internalNodes>
            0 -1 155 3.6397543735802174e-03</internalNodes>
          <leafValues>
            1.8709552288055420e-01 -7.4268949031829834e-01</leafValues></_>
        <_>
          <internalNodes>
            0 -1 27 1.5687945415265858e-04</internalNodes>
          <leafValues>
            -2.9008927941322327e-01 4.9231547117233276e-01</leafValues></_>
        <_>
          <internalNodes>
            0 -1 82 1.0058798361569643e-03</internalNodes>
          <leafValues>
            1.4196905493736267e-01 -9.2286056280136108e-01</leafValues></_>
        <_>
          <internalNodes>
            0 -1 124 1.7334816511720419e-03</internalNodes>
          <leafValues>
            -2.9967179894447327e-01 4.8901784420013428e-01</leafValues></_>
        <_>
          <internalNodes>
            0 -1 94 9.8387822508811951e-03</internalNodes>
          <leafValues>
            -1.9130852818489075e-01 8.2847213745117188e-01</leafValues></_>
        <_>
          <internalNodes>
            0 -1 74 4.0227663703262806e-03</internalNodes>
          <leafValues>
            -1.5001742541790009e-01 5.7942074537277222e-01</leafValues></_>
        <_>
          <internalNodes>
            0 -1 59 -4.3022669851779938e-03</internalNodes>
          <leafValues>
            4.5444583892822266e-01 -3.2735848426818848e-01</leafValues></_>
        <_>
          <internalNodes>
            0 -1 63 2.8656121343374252e-02</internalNodes>
          <leafValues>
            1.5918470919132233e-01 -8.0733448266983032e-01</leafValues></_></weakClassifiers></_>
    <!-- stage 6 -->
    <_>
      <maxWeakCount>18</maxWeakCount>
      <stageThreshold>-8.5903686285018921e-01</stageThreshold>
      <weakClassifiers>
        <_>
          <internalNodes>
            0 -1 121 -1.6294591128826141e-02</internalNodes>
          <leafValues>
            3.8043478131294250e-01 -5.6537103652954102e-01</leafValues></_>
        <_>
          <internalNodes>
            0 -1 78 -3.4312040952499956e-05</internalNodes>
          <leafValues>
            -8.7782388925552368e-01 1.0840315371751785e-01</leafValues></_>
        <_>
          <internalNodes>
            0 -1 118 3.5236240364611149e-03</internalNodes>
          <leafValues>
            1.0390633344650269e-01 -8.9017230272293091e-01</leafValues></_>
        <_>
          <internalNodes>
            0 -1 11 -4.4940682128071785e-03</internalNodes>
          <leafValues>
            6.4277803897857666e-01 -1.9274550676345825e-01</leafValues></_>
        <_>
          <internalNodes>
            0 -1 16 2.3543467978015542e-04</internalNodes>
          <leafValues>
            2.2208681702613831e-01 -6.8178695440292358e-01</leafValues></_>
        <_>
          <internalNodes>
            0 -1 149 -6.2753260135650635e-04</internalNodes>
          <leafValues>
            8.8318926095962524e-01 -2.2426612675189972e-01</leafValues></_>
        <_>
          <internalNodes>
            0 -1 8 -3.4445915371179581e-03</internalNodes>
          <leafValues>
            -7.8819763660430908e-01 2.1614718437194824e-01</leafValues></_>
        <_>
          <internalNodes>
            0 -1 109 -4.9560872867004946e-05</internalNodes>
          <leafValues>
            4.7231739759445190e-01 -2.5016069412231445e-01</leafValues></_>
        <_>
          <internalNodes>
            0 -1 81 -2.8727889002766460e-05</internalNodes>
          <leafValues>
            4.1678965091705322e-01 -3.0707719922065735e-01</leafValues></_>
        <_>
          <internalNodes>
            0 -1 34 2.5390513241291046e-02</internalNodes>
          <leafValues>
            1.5875855088233948e-01 -7.2306513786315918e-01</leafValues></_>
        <_>
          <internalNodes>
            0 -1 43 -8.7500913068652153e-03</internalNodes>
          <leafValues>
            -8.2907944917678833e-01 1.1329720914363861e-01</leafValues></_>
        <_>
          <internalNodes>
            0 -1 160 -4.6733886847505346e-05</internalNodes>
          <leafValues>
            -5.3793507814407349e-01 1.4168748259544373e-01</leafValues></_>
        <_>
          <internalNodes>
            0 -1 132 4.5115789398550987e-03</internalNodes>
          <leafValues>
            1.3863280415534973e-01 -8.5014301538467407e-01</leafValues></_>
        <_>
          <internalNodes>
            0 -1 91 6.0705770738422871e-04</internalNodes>
          <leafValues>
            -2.9760488867759705e-01 4.3274226784706116e-01</leafValues></_>
        <_>
          <internalNodes>
            0 -1 20 1.4827935956418514e-04</internalNodes>
          <leafValues>
            -2.7503174543380737e-01 4.3715423345565796e-01</leafValues></_>
        <_>
          <internalNodes>
            0 -1 29 2.0227683708071709e-03</internalNodes>
          <leafValues>
            -1.9711007177829742e-01 5.8841156959533691e-01</leafValues></_>
        <_>
          <internalNodes>
            0 -1 102 6.1279218643903732e-03</internalNodes>
          <leafValues>
            1.6397286951541901e-01 -8.0120784044265747e-01</leafValues></_>
        <_>
          <internalNodes>
            0 -1 83 -2.5423342594876885e-04</internalNodes>
          <leafValues>
            -8.9607036113739014e-01 8.3437986671924591e-02</leafValues></_></weakClassifiers></_>
    <!-- stage 7 -->
    <_>
      <maxWeakCount>15</maxWeakCount>
      <stageThreshold>-6.3452708721160889e-01</stageThreshold>
      <weakClassifiers>
        <_>
          <internalNodes>
            0 -1 146 1.1178292334079742e-03</internalNodes>
          <leafValues>
            -5.3897178173065186e-01 5.1020407676696777e-01</leafValues></_>
        <_>
          <internalNodes>
            0 -1 61 1.4718239981448278e-05</internalNodes>
          <leafValues>
            1.8378137052059174e-01 -9.7219139337539673e-01</leafValues></_>
        <_>
          <internalNodes>
            0 -1 117 3.1385649926960468e-03</internalNodes>
          <leafValues>
            7.0901647210121155e-02 -9.6297973394393921e-01</leafValues></_>
        <_>
          <internalNodes>
            0 -1 129 5.9798518195748329e-03</internalNodes>
          <leafValues>
            1.3427695631980896e-01 -7.7447587251663208e-01</leafValues></_>
        <_>
          <internalNodes>
            0 -1 158 -3.0149449594318867e-03</internalNodes>
          <leafValues>
            -7.4222379922866821e-01 1.1203742027282715e-01</leafValues></_>
        <_>
          <internalNodes>
            0 -1 9 2.9755878495052457e-04</internalNodes>
          <leafValues>
            1.3944910466670990e-01 -6.4564150571823120e-01</leafValues></_>
        <_>
          <internalNodes>
            0 -1 57 1.2345543364062905e-03</internalNodes>
          <leafValues>
            1.2002073973417282e-01 -7.9242461919784546e-01</leafValues></_>
        <_>
          <internalNodes>
            0 -1 140 -1.6083556693047285e-04</internalNodes>
          <leafValues>
            6.4194732904434204e-01 -1.7402260005474091e-01</leafValues></_>
        <_>
          <internalNodes>
            0 -1 26 -3.4479040186852217e-04</internalNodes>
          <leafValues>
            3.5506346821784973e-01 -3.3457383513450623e-01</leafValues></_>
        <_>
          <internalNodes>
            0 -1 113 5.2687162678921595e-05</internalNodes>
          <leafValues>
            -2.4545849859714508e-01 4.3307518959045410e-01</leafValues></_>
        <_>
          <internalNodes>
            0 -1 79 -6.9770859554409981e-03</internalNodes>
          <leafValues>
            3.6610716581344604e-01 -2.8218296170234680e-01</leafValues></_>
        <_>
          <internalNodes>
            0 -1 36 -2.1450738422572613e-03</internalNodes>
          <leafValues>
            -9.5960938930511475e-01 9.3257807195186615e-02</leafValues></_>
        <_>
          <internalNodes>
            0 -1 38 1.9354296382516623e-03</internalNodes>
          <leafValues>
            -1.9644398987293243e-01 5.5658578872680664e-01</leafValues></_>
        <_>
          <internalNodes>
            0 -1 110 -8.7320625782012939e-02</internalNodes>
          <leafValues>
            9.0835905075073242e-01 -1.0096941888332367e-01</leafValues></_>
        <_>
          <internalNodes>
            0 -1 98 -3.2300781458616257e-03</internalNodes>
          <leafValues>
            -6.6087746620178223e-01 2.0241630077362061e-01</leafValues></_></weakClassifiers></_>
    <!-- stage 8 -->
    <_>
      <maxWeakCount>20</maxWeakCount>
      <stageThreshold>-8.0257415771484375e-01</stageThreshold>
      <weakClassifiers>
        <_>
          <internalNodes>
            0 -1 144 4.4761889148503542e-04</internalNodes>
          <leafValues>
            -5.8985203504562378e-01 1.0469313710927963e-01</leafValues></_>
        <_>
          <internalNodes>
            0 -1 126 -2.3832302758819424e-05</internalNodes>
          <leafValues>
            -6.8653488159179688e-01 1.0900806635618210e-01</leafValues></_>
        <_>
          <internalNodes>
            0 -1 144 -8.3485916547942907e-05</internalNodes>
          <leafValues>
            7.1404242515563965e-01 -1.5580289065837860e-01</leafValues></_>
        <_>
          <internalNodes>
            0 -1 42 6.5250201150774956e-03</internalNodes>
          <leafValues>
            1.2851223349571228e-01 -7.3081040382385254e-01</leafValues></_>
        <_>
          <internalNodes>
            0 -1 85 2.0819739438593388e-03</internalNodes>
          <leafValues>
            -3.0594605207443237e-01 3.1167608499526978e-01</leafValues></_>
        <_>
          <internalNodes>
            0 -1 158 1.4128881957731210e-05</internalNodes>
          <leafValues>
            1.7664238810539246e-01 -5.7028269767761230e-01</leafValues></_>
        <_>
          <internalNodes>
            0 -1 44 9.4708036631345749e-03</internalNodes>
          <leafValues>
            1.1613827943801880e-01 -7.0460540056228638e-01</leafValues></_>
        <_>
          <internalNodes>
            0 -1 73 -7.7637014328502119e-05</internalNodes>
          <leafValues>
            -8.3570992946624756e-01 9.8068729043006897e-02</leafValues></_>
        <_>
          <internalNodes>
            0 -1 62 -1.4182410668581724e-03</internalNodes>
          <leafValues>
            2.6744750142097473e-01 -3.4887737035751343e-01</leafValues></_>
        <_>
          <internalNodes>
            0 -1 31 -4.1892239823937416e-03</internalNodes>
          <leafValues>
            -8.7881696224212646e-01 8.3201259374618530e-02</leafValues></_>
        <_>
          <internalNodes>
            0 -1 6 -8.3764537703245878e-04</internalNodes>
          <leafValues>
            4.5928895473480225e-01 -2.0551346242427826e-01</leafValues></_>
        <_>
          <internalNodes>
            0 -1 15 4.5753811718896031e-04</internalNodes>
          <leafValues>
            -1.4412946999073029e-01 6.6843217611312866e-01</leafValues></_>
        <_>
          <internalNodes>
            0 -1 159 -4.6429660869762301e-04</internalNodes>
          <leafValues>
            -7.8169620037078857e-01 1.2042905390262604e-01</leafValues></_>
        <_>
          <internalNodes>
            0 -1 46 -4.4813082786276937e-04</internalNodes>
          <leafValues>
            4.3473553657531738e-01 -2.4182982742786407e-01</leafValues></_>
        <_>
          <internalNodes>
            0 -1 104 1.0846191085875034e-02</internalNodes>
          <leafValues>
            1.2747910618782043e-01 -7.2569590806961060e-01</leafValues></_>
        <_>
          <internalNodes>
            0 -1 143 4.7038476914167404e-03</internalNodes>
          <leafValues>
            -1.7094518244266510e-01 6.5748721361160278e-01</leafValues></_>
        <_>
          <internalNodes>
            0 -1 4 9.2066312208771706e-04</internalNodes>
          <leafValues>
            1.2365822494029999e-01 -9.1109323501586914e-01</leafValues></_>
        <_>
          <internalNodes>
            0 -1 142 2.3377290926873684e-03</internalNodes>
          <leafValues>
            -3.4915763139724731e-01 2.5793457031250000e-01</leafValues></_>
        <_>
          <internalNodes>
            0 -1 64 -8.8882986456155777e-03</internalNodes>
          <leafValues>
            -9.3522989749908447e-01 9.5972284674644470e-02</leafValues></_>
        <_>
          <internalNodes>
            0 -1 138 -2.7785641141235828e-03</internalNodes>
          <leafValues>
            7.3637545108795166e-01 -1.5159131586551666e-01</leafValues></_></weakClassifiers></_>
    <!-- stage 9 -->
    <_>
      <maxWeakCount>24</maxWeakCount>
      <stageThreshold>-6.0145556926727295e-01</stageThreshold>
      <weakClassifiers>
        <_>
          <internalNodes>
            0 -1 93 3.2966150902211666e-03</internalNodes>
          <leafValues>
            -5.7828807830810547e-01 9.9630996584892273e-02</leafValues></_>
        <_>
          <internalNodes>
            0 -1 130 -8.0319572589360178e-05</internalNodes>
          <leafValues>
            -8.5300558805465698e-01 7.1267016232013702e-02</leafValues></_>
        <_>
          <internalNodes>
            0 -1 89 -3.4734352957457304e-03</internalNodes>
          <leafValues>
            5.1913934946060181e-01 -1.6567137837409973e-01</leafValues></_>
        <_>
          <internalNodes>
            0 -1 103 -2.1781794202979654e-05</internalNodes>
          <leafValues>
            -4.9556663632392883e-01 1.7023703455924988e-01</leafValues></_>
        <_>
          <internalNodes>
            0 -1 28 -1.1130599305033684e-03</internalNodes>
          <leafValues>
            4.9797496199607849e-01 -1.8452732264995575e-01</leafValues></_>
        <_>
          <internalNodes>
            0 -1 56 1.9533712416887283e-02</internalNodes>
          <leafValues>
            1.6597534716129303e-01 -6.2308788299560547e-01</leafValues></_>
        <_>
          <internalNodes>
            0 -1 84 1.4985627494752407e-02</internalNodes>
          <leafValues>
            1.2096659839153290e-01 -5.5972903966903687e-01</leafValues></_>
        <_>
          <internalNodes>
            0 -1 30 6.9229991640895605e-04</internalNodes>
          <leafValues>
            -2.4454301595687866e-01 3.4399870038032532e-01</leafValues></_>
        <_>
          <internalNodes>
            0 -1 22 -2.2918571630725637e-05</internalNodes>
          <leafValues>
            -5.9608328342437744e-01 1.2902630865573883e-01</leafValues></_>
        <_>
          <internalNodes>
            0 -1 70 -9.6318335636169650e-06</internalNodes>
          <leafValues>
            3.3638843894004822e-01 -2.3383064568042755e-01</leafValues></_>
        <_>
          <internalNodes>
            0 -1 125 4.9808226322056726e-05</internalNodes>
          <leafValues>
            1.2074308842420578e-01 -8.0221617221832275e-01</leafValues></_>
        <_>
          <internalNodes>
            0 -1 107 7.5775489676743746e-05</internalNodes>
          <leafValues>
            -2.0931109786033630e-01 4.3594494462013245e-01</leafValues></_>
        <_>
          <internalNodes>
            0 -1 127 -8.3148537669330835e-05</internalNodes>
          <leafValues>
            -9.3888545036315918e-01 7.0053026080131531e-02</leafValues></_>
        <_>
          <internalNodes>
            0 -1 21 2.9386112466454506e-02</internalNodes>
          <leafValues>
            7.8449688851833344e-02 -6.9817048311233521e-01</leafValues></_>
        <_>
          <internalNodes>
            0 -1 75 -9.8473401521914639e-06</internalNodes>
          <leafValues>
            2.5165528059005737e-01 -3.1112039089202881e-01</leafValues></_>
        <_>
          <internalNodes>
            0 -1 77 8.3531509153544903e-04</internalNodes>
          <leafValues>
            -2.4286468327045441e-01 3.5314702987670898e-01</leafValues></_>
        <_>
          <internalNodes>
            0 -1 14 3.7594970781356096e-03</internalNodes>
          <leafValues>
            8.9315228164196014e-02 -7.9196089506149292e-01</leafValues></_>
        <_>
          <internalNodes>
            0 -1 123 -2.0389445126056671e-03</internalNodes>
          <leafValues>
            -1. 5.3345426917076111e-02</leafValues></_>
        <_>
          <internalNodes>
            0 -1 45 3.3063755836337805e-04</internalNodes>
          <leafValues>
            -1.9319444894790649e-01 4.3200305104255676e-01</leafValues></_>
        <_>
          <internalNodes>
            0 -1 52 1.3074240087007638e-05</internalNodes>
          <leafValues>
            1.0314685106277466e-01 -7.8049725294113159e-01</leafValues></_>
        <_>
          <internalNodes>
            0 -1 32 5.4199894657358527e-04</internalNodes>
          <leafValues>
            -2.1047361195087433e-01 3.9151602983474731e-01</leafValues></_>
        <_>
          <internalNodes>
            0 -1 25 9.3896836042404175e-03</internalNodes>
          <leafValues>
            1.7533130943775177e-01 -5.2381777763366699e-01</leafValues></_>
        <_>
          <internalNodes>
            0 -1 145 -3.4168991260230541e-04</internalNodes>
          <leafValues>
            6.8162035942077637e-01 -1.2913763523101807e-01</leafValues></_>
        <_>
          <internalNodes>
            0 -1 47 -4.9549696268513799e-04</internalNodes>
          <leafValues>
            3.5796979069709778e-01 -1.9194251298904419e-01</leafValues></_></weakClassifiers></_>
    <!-- stage 10 -->
    <_>
      <maxWeakCount>17</maxWeakCount>
      <stageThreshold>-4.9785733222961426e-01</stageThreshold>
      <weakClassifiers>
        <_>
          <internalNodes>
            0 -1 139 5.5599393090233207e-04</internalNodes>
          <leafValues>
            -5.5009454488754272e-01 1.8552036583423615e-01</leafValues></_>
        <_>
          <internalNodes>
            0 -1 108 5.3647113963961601e-03</internalNodes>
          <leafValues>
            1.0443619638681412e-01 -6.5760725736618042e-01</leafValues></_>
        <_>
          <internalNodes>
            0 -1 55 -4.2376290366519243e-05</internalNodes>
          <leafValues>
            -7.9099041223526001e-01 9.4824597239494324e-02</leafValues></_>
        <_>
          <internalNodes>
            0 -1 60 1.7884296830743551e-03</internalNodes>
          <leafValues>
            8.4182716906070709e-02 -9.6889173984527588e-01</leafValues></_>
        <_>
          <internalNodes>
            0 -1 35 -2.8184924274682999e-02</internalNodes>
          <leafValues>
            -5.4693710803985596e-01 1.4694508910179138e-01</leafValues></_>
        <_>
          <internalNodes>
            0 -1 112 3.2842759974300861e-03</internalNodes>
          <leafValues>
            -2.0570975542068481e-01 4.7839459776878357e-01</leafValues></_>
        <_>
          <internalNodes>
            0 -1 66 1.4885462587699294e-04</internalNodes>
          <leafValues>
            -1.6135117411613464e-01 4.8854956030845642e-01</leafValues></_>
        <_>
          <internalNodes>
            0 -1 76 -2.0196039986331016e-04</internalNodes>
          <leafValues>
            3.0474165081977844e-01 -3.2174283266067505e-01</leafValues></_>
        <_>
          <internalNodes>
            0 -1 135 3.9843418635427952e-03</internalNodes>
          <leafValues>
            8.0956764519214630e-02 -9.3611764907836914e-01</leafValues></_>
        <_>
          <internalNodes>
            0 -1 65 5.8563400059938431e-02</internalNodes>
          <leafValues>
            -9.7829580307006836e-02 9.2533236742019653e-01</leafValues></_>
        <_>
          <internalNodes>
            0 -1 154 -6.0502439737319946e-04</internalNodes>
          <leafValues>
            5.3127378225326538e-01 -1.3469763100147247e-01</leafValues></_>
        <_>
          <internalNodes>
            0 -1 116 2.6104550343006849e-03</internalNodes>
          <leafValues>
            -1.7690704762935638e-01 6.1247116327285767e-01</leafValues></_>
        <_>
          <internalNodes>
            0 -1 136 4.2161664168816060e-05</internalNodes>
          <leafValues>
            -1.9086845219135284e-01 4.4737839698791504e-01</leafValues></_>
        <_>
          <internalNodes>
            0 -1 48 5.7416269555687904e-04</internalNodes>
          <leafValues>
            -2.6165857911109924e-01 3.5088807344436646e-01</leafValues></_>
        <_>
          <internalNodes>
            0 -1 156 1.9413279369473457e-03</internalNodes>
          <leafValues>
            1.0853576660156250e-01 -7.9756587743759155e-01</leafValues></_>
        <_>
          <internalNodes>
            0 -1 88 -1.4242908218875527e-04</internalNodes>
          <leafValues>
            3.5848447680473328e-01 -2.2372375428676605e-01</leafValues></_>
        <_>
          <internalNodes>
            0 -1 128 2.1795456632389687e-05</internalNodes>
          <leafValues>
            9.4315029680728912e-02 -7.8487384319305420e-01</leafValues></_></weakClassifiers></_>
    <!-- stage 11 -->
    <_>
      <maxWeakCount>20</maxWeakCount>
      <stageThreshold>-6.0391664505004883e-01</stageThreshold>
      <weakClassifiers>
        <_>
          <internalNodes>
            0 -1 0 -7.0698515628464520e-05</internalNodes>
          <leafValues>
            3.7333333492279053e-01 -5.0999999046325684e-01</leafValues></_>
        <_>
          <internalNodes>
            0 -1 137 1.4766285858058836e-05</internalNodes>
          <leafValues>
            6.9411598145961761e-02 -9.5150977373123169e-01</leafValues></_>
        <_>
          <internalNodes>
            0 -1 95 -1.4432933926582336e-01</internalNodes>
          <leafValues>
            -2.9878687858581543e-01 3.2175037264823914e-01</leafValues></_>
        <_>
          <internalNodes>
            0 -1 18 -1.7987437546253204e-02</internalNodes>
          <leafValues>
            3.4572070837020874e-01 -2.6465153694152832e-01</leafValues></_>
        <_>
          <internalNodes>
            0 -1 120 -4.9600200727581978e-03</internalNodes>
          <leafValues>
            -9.3989902734756470e-01 8.8452786207199097e-02</leafValues></_>
        <_>
          <internalNodes>
            0 -1 13 1.7073593335226178e-04</internalNodes>
          <leafValues>
            -1.9084163010120392e-01 5.0802403688430786e-01</leafValues></_>
        <_>
          <internalNodes>
            0 -1 86 -5.9103629610035568e-05</internalNodes>
          <leafValues>
            3.4844797849655151e-01 -2.7195197343826294e-01</leafValues></_>
        <_>
          <internalNodes>
            0 -1 67 4.7773350961506367e-03</internalNodes>
          <leafValues>
            1.0385471582412720e-01 -6.9174540042877197e-01</leafValues></_>
        <_>
          <internalNodes>
            0 -1 1 -8.0832522362470627e-03</internalNodes>
          <leafValues>
            -6.9377827644348145e-01 1.0536558926105499e-01</leafValues></_>
        <_>
          <internalNodes>
            0 -1 115 -1.6410312673542649e-04</internalNodes>
          <leafValues>
            -9.5364165306091309e-01 6.5010920166969299e-02</leafValues></_>
        <_>
          <internalNodes>
            0 -1 68 9.1204553609713912e-04</internalNodes>
          <leafValues>
            -1.8872073292732239e-01 4.6459046006202698e-01</leafValues></_>
        <_>
          <internalNodes>
            0 -1 134 -6.3383476808667183e-03</internalNodes>
          <leafValues>
            7.0394670963287354e-01 -8.4863133728504181e-02</leafValues></_>
        <_>
          <internalNodes>
            0 -1 133 2.5698118843138218e-03</internalNodes>
          <leafValues>
            -2.3531942069530487e-01 4.2307454347610474e-01</leafValues></_>
        <_>
          <internalNodes>
            0 -1 72 2.9794936999678612e-02</internalNodes>
          <leafValues>
            -1.2280951440334320e-01 7.0273518562316895e-01</leafValues></_>
        <_>
          <internalNodes>
            0 -1 99 9.9397301673889160e-03</internalNodes>
          <leafValues>
            1.3224852085113525e-01 -7.6543873548507690e-01</leafValues></_>
        <_>
          <internalNodes>
            0 -1 90 -1.9276117905974388e-02</internalNodes>
          <leafValues>
            -8.8697779178619385e-01 5.9702951461076736e-02</leafValues></_>
        <_>
          <internalNodes>
            0 -1 105 -1.3647835701704025e-02</internalNodes>
          <leafValues>
            5.0020414590835571e-01 -1.6769932210445404e-01</leafValues></_>
        <_>
          <internalNodes>
            0 -1 150 8.3342287689447403e-03</internalNodes>
          <leafValues>
            1.0493975132703781e-01 -7.9984909296035767e-01</leafValues></_>
        <_>
          <internalNodes>
            0 -1 147 3.5472437739372253e-03</internalNodes>
          <leafValues>
            -1.5095709264278412e-01 5.2563810348510742e-01</leafValues></_>
        <_>
          <internalNodes>
            0 -1 101 -1.0156470537185669e-01</internalNodes>
          <leafValues>
            8.8429987430572510e-01 -7.7211715281009674e-02</leafValues></_></weakClassifiers></_></stages>
  <features>
    <_>
      <rects>
        <_>
          0 0 2 6 -1.</_>
        <_>
          0 0 1 3 2.</_>
        <_>
          1 3 1 3 2.</_></rects>
      <tilted>0</tilted></_>
    <_>
      <rects>
        <_>
          0 0 1 10 -1.</_>
        <_>
          0 5 1 5 2.</_></rects>
      <tilted>0</tilted></_>
    <_>
      <rects>
        <_>
          0 0 1 22 -1.</_>
        <_>
          0 11 1 11 2.</_></rects>
      <tilted>0</tilted></_>
    <_>
      <rects>
        <_>
          0 0 9 16 -1.</_>
        <_>
          3 0 3 16 2.</_></rects>
      <tilted>0</tilted></_>
    <_>
      <rects>
        <_>
          0 0 32 2 -1.</_>
        <_>
          16 0 16 2 2.</_></rects>
      <tilted>0</tilted></_>
    <_>
      <rects>
        <_>
          0 0 27 21 -1.</_>
        <_>
          0 7 27 7 2.</_></rects>
      <tilted>0</tilted></_>
    <_>
      <rects>
        <_>
          0 1 6 5 -1.</_>
        <_>
          3 1 3 5 2.</_></rects>
      <tilted>0</tilted></_>
    <_>
      <rects>
        <_>
          0 2 1 14 -1.</_>
        <_>
          0 9 1 7 2.</_></rects>
      <tilted>0</tilted></_>
    <_>
      <rects>
        <_>
          0 2 1 22 -1.</_>
        <_>
          0 13 1 11 2.</_></rects>
      <tilted>0</tilted></_>
    <_>
      <rects>
        <_>
          0 5 1 12 -1.</_>
        <_>
          0 11 1 6 2.</_></rects>
      <tilted>0</tilted></_>
    <_>
      <rects>
        <_>
          0 5 4 3 -1.</_>
        <_>
          2 5 2 3 2.</_></rects>
      <tilted>0</tilted></_>
    <_>
      <rects>
        <_>
          0 6 2 6 -1.</_>
        <_>
          1 6 1 6 2.</_></rects>
      <tilted>0</tilted></_>
    <_>
      <rects>
        <_>
          0 6 1 12 -1.</_>
        <_>
          0 12 1 6 2.</_></rects>
      <tilted>0</tilted></_>
    <_>
      <rects>
        <_>
          0 6 10 1 -1.</_>
        <_>
          5 6 5 1 2.</_></rects>
      <tilted>0</tilted></_>
    <_>
      <rects>
        <_>
          0 7 2 10 -1.</_>
        <_>
          0 12 2 5 2.</_></rects>
      <tilted>0</tilted></_>
    <_>
      <rects>
        <_>
          0 8 2 2 -1.</_>
        <_>
          1 8 1 2 2.</_></rects>
      <tilted>0</tilted></_>
    <_>
      <rects>
        <_>
          0 8 1 8 -1.</_>
        <_>
          0 12 1 4 2.</_></rects>
      <tilted>0</tilted></_>
    <_>
      <rects>
        <_>
          0 8 1 14 -1.</_>
        <_>
          0 15 1 7 2.</_></rects>
      <tilted>0</tilted></_>
    <_>
      <rects>
        <_>
          0 8 12 15 -1.</_>
        <_>
          6 8 6 15 2.</_></rects>
      <tilted>0</tilted></_>
    <_>
      <rects>
        <_>
          0 10 4 1 -1.</_>
        <_>
          2 10 2 1 2.</_></rects>
      <tilted>0</tilted></_>
    <_>
      <rects>
        <_>
          0 12 6 4 -1.</_>
        <_>
          0 12 3 2 2.</_>
        <_>
          3 14 3 2 2.</_></rects>
      <tilted>0</tilted></_>
    <_>
      <rects>
        <_>
          0 12 32 12 -1.</_>
        <_>
          0 12 16 6 2.</_>
        <_>
          16 18 16 6 2.</_></rects>
      <tilted>0</tilted></_>
    <_>
      <rects>
        <_>
          0 13 1 6 -1.</_>
        <_>
          0 16 1 3 2.</_></rects>
      <tilted>0</tilted></_>
    <_>
      <rects>
        <_>
          0 13 8 1 -1.</_>
        <_>
          4 13 4 1 2.</_></rects>
      <tilted>0</tilted></_>
    <_>
      <rects>
        <_>
          0 13 8 2 -1.</_>
        <_>
          4 13 4 2 2.</_></rects>
      <tilted>0</tilted></_>
    <_>
      <rects>
        <_>
          0 13 26 2 -1.</_>
        <_>
          13 13 13 2 2.</_></rects>
      <tilted>0</tilted></_>
    <_>
      <rects>
        <_>
          0 14 6 2 -1.</_>
        <_>
          3 14 3 2 2.</_></rects>
      <tilted>0</tilted></_>
    <_>
      <rects>
        <_>
          0 17 6 1 -1.</_>
        <_>
          3 17 3 1 2.</_></rects>
      <tilted>0</tilted></_>
    <_>
      <rects>
        <_>
          0 17 6 6 -1.</_>
        <_>
          0 17 3 3 2.</_>
        <_>
          3 20 3 3 2.</_></rects>
      <tilted>0</tilted></_>
    <_>
      <rects>
        <_>
          0 18 4 6 -1.</_>
        <_>
          0 18 2 3 2.</_>
        <_>
          2 21 2 3 2.</_></rects>
      <tilted>0</tilted></_>
    <_>
      <rects>
        <_>
          0 18 18 6 -1.</_>
        <_>
          0 18 9 3 2.</_>
        <_>
          9 21 9 3 2.</_></rects>
      <tilted>0</tilted></_>
    <_>
      <rects>
        <_>
          1 0 30 1 -1.</_>
        <_>
          16 0 15 1 2.</_></rects>
      <tilted>0</tilted></_>
    <_>
      <rects>
        <_>
          1 9 26 2 -1.</_>
        <_>
          14 9 13 2 2.</_></rects>
      <tilted>0</tilted></_>
    <_>
      <rects>
        <_>
          2 0 27 18 -1.</_>
        <_>
          2 9 27 9 2.</_></rects>
      <tilted>0</tilted></_>
    <_>
      <rects>
        <_>
          2 7 30 16 -1.</_>
        <_>
          2 7 15 8 2.</_>
        <_>
          17 15 15 8 2.</_></rects>
      <tilted>0</tilted></_>
    <_>
      <rects>
        <_>
          2 9 30 14 -1.</_>
        <_>
          2 9 15 7 2.</_>
        <_>
          17 16 15 7 2.</_></rects>
      <tilted>0</tilted></_>
    <_>
      <rects>
        <_>
          2 18 6 2 -1.</_>
        <_>
          2 18 3 1 2.</_>
        <_>
          5 19 3 1 2.</_></rects>
      <tilted>0</tilted></_>
    <_>
      <rects>
        <_>
          2 23 30 1 -1.</_>
        <_>
          17 23 15 1 2.</_></rects>
      <tilted>0</tilted></_>
    <_>
      <rects>
        <_>
          3 2 2 8 -1.</_>
        <_>
          3 6 2 4 2.</_></rects>
      <tilted>0</tilted></_>
    <_>
      <rects>
        <_>
          3 3 24 20 -1.</_>
        <_>
          3 3 12 10 2.</_>
        <_>
          15 13 12 10 2.</_></rects>
      <tilted>0</tilted></_>
    <_>
      <rects>
        <_>
          3 4 28 18 -1.</_>
        <_>
          3 4 14 9 2.</_>
        <_>
          17 13 14 9 2.</_></rects>
      <tilted>0</tilted></_>
    <_>
      <rects>
        <_>
          3 14 24 10 -1.</_>
        <_>
          3 19 24 5 2.</_></rects>
      <tilted>0</tilted></_>
    <_>
      <rects>
        <_>
          3 16 28 4 -1.</_>
        <_>
          3 16 14 2 2.</_>
        <_>
          17 18 14 2 2.</_></rects>
      <tilted>0</tilted></_>
    <_>
      <rects>
        <_>
          4 0 6 11 -1.</_>
        <_>
          7 0 3 11 2.</_></rects>
      <tilted>0</tilted></_>
    <_>
      <rects>
        <_>
          4 3 4 14 -1.</_>
        <_>
          6 3 2 14 2.</_></rects>
      <tilted>0</tilted></_>
    <_>
      <rects>
        <_>
          4 11 3 2 -1.</_>
        <_>
          4 12 3 1 2.</_></rects>
      <tilted>0</tilted></_>
    <_>
      <rects>
        <_>
          4 11 5 2 -1.</_>
        <_>
          4 12 5 1 2.</_></rects>
      <tilted>0</tilted></_>
    <_>
      <rects>
        <_>
          4 15 28 2 -1.</_>
        <_>
          4 15 14 1 2.</_>
        <_>
          18 16 14 1 2.</_></rects>
      <tilted>0</tilted></_>
    <_>
      <rects>
        <_>
          4 16 28 5 -1.</_>
        <_>
          18 16 14 5 2.</_></rects>
      <tilted>0</tilted></_>
    <_>
      <rects>
        <_>
          4 18 17 6 -1.</_>
        <_>
          4 21 17 3 2.</_></rects>
      <tilted>0</tilted></_>
    <_>
      <rects>
        <_>
          4 23 26 1 -1.</_>
        <_>
          17 23 13 1 2.</_></rects>
      <tilted>0</tilted></_>
    <_>
      <rects>
        <_>
          5 0 4 24 -1.</_>
        <_>
          5 0 2 12 2.</_>
        <_>
          7 12 2 12 2.</_></rects>
      <tilted>0</tilted></_>
    <_>
      <rects>
        <_>
          5 0 10 2 -1.</_>
        <_>
          5 1 10 1 2.</_></rects>
      <tilted>0</tilted></_>
    <_>
      <rects>
        <_>
          5 0 26 24 -1.</_>
        <_>
          5 0 13 12 2.</_>
        <_>
          18 12 13 12 2.</_></rects>
      <tilted>0</tilted></_>
    <_>
      <rects>
        <_>
          5 0 26 6 -1.</_>
        <_>
          5 3 26 3 2.</_></rects>
      <tilted>0</tilted></_>
    <_>
      <rects>
        <_>
          5 1 2 6 -1.</_>
        <_>
          5 1 1 3 2.</_>
        <_>
          6 4 1 3 2.</_></rects>
      <tilted>0</tilted></_>
    <_>
      <rects>
        <_>
          5 1 22 22 -1.</_>
        <_>
          5 1 11 11 2.</_>
        <_>
          16 12 11 11 2.</_></rects>
      <tilted>0</tilted></_>
    <_>
      <rects>
        <_>
          5 7 22 2 -1.</_>
        <_>
          5 7 11 1 2.</_>
        <_>
          16 8 11 1 2.</_></rects>
      <tilted>0</tilted></_>
    <_>
      <rects>
        <_>
          5 10 18 7 -1.</_>
        <_>
          11 10 6 7 2.</_></rects>
      <tilted>0</tilted></_>
    <_>
      <rects>
        <_>
          5 14 15 6 -1.</_>
        <_>
          5 17 15 3 2.</_></rects>
      <tilted>0</tilted></_>
    <_>
      <rects>
        <_>
          5 18 4 4 -1.</_>
        <_>
          5 18 2 2 2.</_>
        <_>
          7 20 2 2 2.</_></rects>
      <tilted>0</tilted></_>
    <_>
      <rects>
        <_>
          6 4 2 2 -1.</_>
        <_>
          7 4 1 2 2.</_></rects>
      <tilted>0</tilted></_>
    <_>
      <rects>
        <_>
          6 5 22 9 -1.</_>
        <_>
          17 5 11 9 2.</_></rects>
      <tilted>0</tilted></_>
    <_>
      <rects>
        <_>
          6 6 24 16 -1.</_>
        <_>
          6 6 12 8 2.</_>
        <_>
          18 14 12 8 2.</_></rects>
      <tilted>0</tilted></_>
    <_>
      <rects>
        <_>
          7 5 2 18 -1.</_>
        <_>
          7 5 1 9 2.</_>
        <_>
          8 14 1 9 2.</_></rects>
      <tilted>0</tilted></_>
    <_>
      <rects>
        <_>
          7 10 4 12 -1.</_>
        <_>
          7 16 4 6 2.</_></rects>
      <tilted>0</tilted></_>
    <_>
      <rects>
        <_>
          7 13 1 2 -1.</_>
        <_>
          7 14 1 1 2.</_></rects>
      <tilted>0</tilted></_>
    <_>
      <rects>
        <_>
          7 14 4 10 -1.</_>
        <_>
          7 14 2 5 2.</_>
        <_>
          9 19 2 5 2.</_></rects>
      <tilted>0</tilted></_>
    <_>
      <rects>
        <_>
          8 1 8 8 -1.</_>
        <_>
          8 1 4 4 2.</_>
        <_>
          12 5 4 4 2.</_></rects>
      <tilted>0</tilted></_>
    <_>
      <rects>
        <_>
          8 2 21 14 -1.</_>
        <_>
          8 9 21 7 2.</_></rects>
      <tilted>0</tilted></_>
    <_>
      <rects>
        <_>
          8 11 2 2 -1.</_>
        <_>
          8 11 1 1 2.</_>
        <_>
          9 12 1 1 2.</_></rects>
      <tilted>0</tilted></_>
    <_>
      <rects>
        <_>
          8 11 6 2 -1.</_>
        <_>
          8 11 3 1 2.</_>
        <_>
          11 12 3 1 2.</_></rects>
      <tilted>0</tilted></_>
    <_>
      <rects>
        <_>
          8 11 8 6 -1.</_>
        <_>
          8 14 8 3 2.</_></rects>
      <tilted>0</tilted></_>
    <_>
      <rects>
        <_>
          8 23 10 1 -1.</_>
        <_>
          13 23 5 1 2.</_></rects>
      <tilted>0</tilted></_>
    <_>
      <rects>
        <_>
          9 12 1 10 -1.</_>
        <_>
          9 17 1 5 2.</_></rects>
      <tilted>0</tilted></_>
    <_>
      <rects>
        <_>
          9 12 18 2 -1.</_>
        <_>
          18 12 9 2 2.</_></rects>
      <tilted>0</tilted></_>
    <_>
      <rects>
        <_>
          9 13 13 2 -1.</_>
        <_>
          9 14 13 1 2.</_></rects>
      <tilted>0</tilted></_>
    <_>
      <rects>
        <_>
          10 6 14 8 -1.</_>
        <_>
          10 6 7 4 2.</_>
        <_>
          17 10 7 4 2.</_></rects>
      <tilted>0</tilted></_>
    <_>
      <rects>
        <_>
          12 0 20 1 -1.</_>
        <_>
          22 0 10 1 2.</_></rects>
      <tilted>0</tilted></_>
    <_>
      <rects>
        <_>
          12 5 14 15 -1.</_>
        <_>
          19 5 7 15 2.</_></rects>
      <tilted>0</tilted></_>
    <_>
      <rects>
        <_>
          12 6 16 8 -1.</_>
        <_>
          12 10 16 4 2.</_></rects>
      <tilted>0</tilted></_>
    <_>
      <rects>
        <_>
          12 11 12 1 -1.</_>
        <_>
          18 11 6 1 2.</_></rects>
      <tilted>0</tilted></_>
    <_>
      <rects>
        <_>
          13 0 18 1 -1.</_>
        <_>
          22 0 9 1 2.</_></rects>
      <tilted>0</tilted></_>
    <_>
      <rects>
        <_>
          13 23 14 1 -1.</_>
        <_>
          20 23 7 1 2.</_></rects>
      <tilted>0</tilted></_>
    <_>
      <rects>
        <_>
          14 2 18 22 -1.</_>
        <_>
          14 2 9 11 2.</_>
        <_>
          23 13 9 11 2.</_></rects>
      <tilted>0</tilted></_>
    <_>
      <rects>
        <_>
          14 9 9 4 -1.</_>
        <_>
          14 11 9 2 2.</_></rects>
      <tilted>0</tilted></_>
    <_>
      <rects>
        <_>
          14 12 4 1 -1.</_>
        <_>
          16 12 2 1 2.</_></rects>
      <tilted>0</tilted></_>
    <_>
      <rects>
        <_>
          14 12 13 8 -1.</_>
        <_>
          14 16 13 4 2.</_></rects>
      <tilted>0</tilted></_>
    <_>
      <rects>
        <_>
          14 19 18 1 -1.</_>
        <_>
          23 19 9 1 2.</_></rects>
      <tilted>0</tilted></_>
    <_>
      <rects>
        <_>
          15 3 16 4 -1.</_>
        <_>
          23 3 8 4 2.</_></rects>
      <tilted>0</tilted></_>
    <_>
      <rects>
        <_>
          15 12 3 1 -1.</_>
        <_>
          16 12 1 1 2.</_></rects>
      <tilted>0</tilted></_>
    <_>
      <rects>
        <_>
          16 10 11 2 -1.</_>
        <_>
          16 11 11 1 2.</_></rects>
      <tilted>0</tilted></_>
    <_>
      <rects>
        <_>
          16 11 10 8 -1.</_>
        <_>
          16 15 10 4 2.</_></rects>
      <tilted>0</tilted></_>
    <_>
      <rects>
        <_>
          16 18 3 6 -1.</_>
        <_>
          16 21 3 3 2.</_></rects>
      <tilted>0</tilted></_>
    <_>
      <rects>
        <_>
          17 1 10 4 -1.</_>
        <_>
          17 3 10 2 2.</_></rects>
      <tilted>0</tilted></_>
    <_>
      <rects>
        <_>
          17 3 4 21 -1.</_>
        <_>
          17 10 4 7 2.</_></rects>
      <tilted>0</tilted></_>
    <_>
      <rects>
        <_>
          17 4 10 16 -1.</_>
        <_>
          17 4 5 8 2.</_>
        <_>
          22 12 5 8 2.</_></rects>
      <tilted>0</tilted></_>
    <_>
      <rects>
        <_>
          17 15 14 8 -1.</_>
        <_>
          17 19 14 4 2.</_></rects>
      <tilted>0</tilted></_>
    <_>
      <rects>
        <_>
          18 0 2 24 -1.</_>
        <_>
          18 0 1 12 2.</_>
        <_>
          19 12 1 12 2.</_></rects>
      <tilted>0</tilted></_>
    <_>
      <rects>
        <_>
          18 2 4 12 -1.</_>
        <_>
          18 2 2 6 2.</_>
        <_>
          20 8 2 6 2.</_></rects>
      <tilted>0</tilted></_>
    <_>
      <rects>
        <_>
          18 2 6 20 -1.</_>
        <_>
          18 2 3 10 2.</_>
        <_>
          21 12 3 10 2.</_></rects>
      <tilted>0</tilted></_>
    <_>
      <rects>
        <_>
          18 14 13 8 -1.</_>
        <_>
          18 18 13 4 2.</_></rects>
      <tilted>0</tilted></_>
    <_>
      <rects>
        <_>
          19 14 4 8 -1.</_>
        <_>
          19 14 2 4 2.</_>
        <_>
          21 18 2 4 2.</_></rects>
      <tilted>0</tilted></_>
    <_>
      <rects>
        <_>
          19 17 6 6 -1.</_>
        <_>
          22 17 3 6 2.</_></rects>
      <tilted>0</tilted></_>
    <_>
      <rects>
        <_>
          20 4 4 18 -1.</_>
        <_>
          22 4 2 18 2.</_></rects>
      <tilted>0</tilted></_>
    <_>
      <rects>
        <_>
          20 8 3 12 -1.</_>
        <_>
          20 14 3 6 2.</_></rects>
      <tilted>0</tilted></_>
    <_>
      <rects>
        <_>
          20 17 12 1 -1.</_>
        <_>
          26 17 6 1 2.</_></rects>
      <tilted>0</tilted></_>
    <_>
      <rects>
        <_>
          20 18 12 4 -1.</_>
        <_>
          20 18 6 2 2.</_>
        <_>
          26 20 6 2 2.</_></rects>
      <tilted>0</tilted></_>
    <_>
      <rects>
        <_>
          21 9 4 12 -1.</_>
        <_>
          21 9 2 6 2.</_>
        <_>
          23 15 2 6 2.</_></rects>
      <tilted>0</tilted></_>
    <_>
      <rects>
        <_>
          21 12 2 2 -1.</_>
        <_>
          21 13 2 1 2.</_></rects>
      <tilted>0</tilted></_>
    <_>
      <rects>
        <_>
          22 4 6 14 -1.</_>
        <_>
          22 11 6 7 2.</_></rects>
      <tilted>0</tilted></_>
    <_>
      <rects>
        <_>
          22 5 6 5 -1.</_>
        <_>
          24 5 2 5 2.</_></rects>
      <tilted>0</tilted></_>
    <_>
      <rects>
        <_>
          22 7 1 8 -1.</_>
        <_>
          22 11 1 4 2.</_></rects>
      <tilted>0</tilted></_>
    <_>
      <rects>
        <_>
          22 11 7 2 -1.</_>
        <_>
          22 12 7 1 2.</_></rects>
      <tilted>0</tilted></_>
    <_>
      <rects>
        <_>
          22 15 6 7 -1.</_>
        <_>
          25 15 3 7 2.</_></rects>
      <tilted>0</tilted></_>
    <_>
      <rects>
        <_>
          23 0 2 6 -1.</_>
        <_>
          23 0 1 3 2.</_>
        <_>
          24 3 1 3 2.</_></rects>
      <tilted>0</tilted></_>
    <_>
      <rects>
        <_>
          23 0 1 8 -1.</_>
        <_>
          23 4 1 4 2.</_></rects>
      <tilted>0</tilted></_>
    <_>
      <rects>
        <_>
          23 15 2 6 -1.</_>
        <_>
          24 15 1 6 2.</_></rects>
      <tilted>0</tilted></_>
    <_>
      <rects>
        <_>
          23 16 4 8 -1.</_>
        <_>
          25 16 2 8 2.</_></rects>
      <tilted>0</tilted></_>
    <_>
      <rects>
        <_>
          24 0 2 6 -1.</_>
        <_>
          24 0 1 3 2.</_>
        <_>
          25 3 1 3 2.</_></rects>
      <tilted>0</tilted></_>
    <_>
      <rects>
        <_>
          24 0 4 11 -1.</_>
        <_>
          26 0 2 11 2.</_></rects>
      <tilted>0</tilted></_>
    <_>
      <rects>
        <_>
          24 0 5 8 -1.</_>
        <_>
          24 4 5 4 2.</_></rects>
      <tilted>0</tilted></_>
    <_>
      <rects>
        <_>
          24 1 4 6 -1.</_>
        <_>
          26 1 2 6 2.</_></rects>
      <tilted>0</tilted></_>
    <_>
      <rects>
        <_>
          24 13 2 1 -1.</_>
        <_>
          25 13 1 1 2.</_></rects>
      <tilted>0</tilted></_>
    <_>
      <rects>
        <_>
          24 16 8 2 -1.</_>
        <_>
          28 16 4 2 2.</_></rects>
      <tilted>0</tilted></_>
    <_>
      <rects>
        <_>
          24 19 2 5 -1.</_>
        <_>
          25 19 1 5 2.</_></rects>
      <tilted>0</tilted></_>
    <_>
      <rects>
        <_>
          24 19 4 5 -1.</_>
        <_>
          26 19 2 5 2.</_></rects>
      <tilted>0</tilted></_>
    <_>
      <rects>
        <_>
          24 20 2 4 -1.</_>
        <_>
          25 20 1 4 2.</_></rects>
      <tilted>0</tilted></_>
    <_>
      <rects>
        <_>
          24 20 4 4 -1.</_>
        <_>
          26 20 2 4 2.</_></rects>
      <tilted>0</tilted></_>
    <_>
      <rects>
        <_>
          25 0 2 24 -1.</_>
        <_>
          26 0 1 24 2.</_></rects>
      <tilted>0</tilted></_>
    <_>
      <rects>
        <_>
          25 0 4 6 -1.</_>
        <_>
          27 0 2 6 2.</_></rects>
      <tilted>0</tilted></_>
    <_>
      <rects>
        <_>
          25 1 2 6 -1.</_>
        <_>
          26 1 1 6 2.</_></rects>
      <tilted>0</tilted></_>
    <_>
      <rects>
        <_>
          25 3 4 9 -1.</_>
        <_>
          27 3 2 9 2.</_></rects>
      <tilted>0</tilted></_>
    <_>
      <rects>
        <_>
          25 5 1 10 -1.</_>
        <_>
          25 10 1 5 2.</_></rects>
      <tilted>0</tilted></_>
    <_>
      <rects>
        <_>
          25 8 1 8 -1.</_>
        <_>
          25 12 1 4 2.</_></rects>
      <tilted>0</tilted></_>
    <_>
      <rects>
        <_>
          25 15 4 2 -1.</_>
        <_>
          27 15 2 2 2.</_></rects>
      <tilted>0</tilted></_>
    <_>
      <rects>
        <_>
          26 3 2 11 -1.</_>
        <_>
          27 3 1 11 2.</_></rects>
      <tilted>0</tilted></_>
    <_>
      <rects>
        <_>
          26 5 2 2 -1.</_>
        <_>
          26 5 1 1 2.</_>
        <_>
          27 6 1 1 2.</_></rects>
      <tilted>0</tilted></_>
    <_>
      <rects>
        <_>
          26 18 1 6 -1.</_>
        <_>
          26 21 1 3 2.</_></rects>
      <tilted>0</tilted></_>
    <_>
      <rects>
        <_>
          28 0 4 6 -1.</_>
        <_>
          28 0 2 3 2.</_>
        <_>
          30 3 2 3 2.</_></rects>
      <tilted>0</tilted></_>
    <_>
      <rects>
        <_>
          28 2 4 5 -1.</_>
        <_>
          30 2 2 5 2.</_></rects>
      <tilted>0</tilted></_>
    <_>
      <rects>
        <_>
          28 14 4 1 -1.</_>
        <_>
          30 14 2 1 2.</_></rects>
      <tilted>0</tilted></_>
    <_>
      <rects>
        <_>
          28 14 4 5 -1.</_>
        <_>
          30 14 2 5 2.</_></rects>
      <tilted>0</tilted></_>
    <_>
      <rects>
        <_>
          28 15 4 8 -1.</_>
        <_>
          28 15 2 4 2.</_>
        <_>
          30 19 2 4 2.</_></rects>
      <tilted>0</tilted></_>
    <_>
      <rects>
        <_>
          28 18 4 1 -1.</_>
        <_>
          30 18 2 1 2.</_></rects>
      <tilted>0</tilted></_>
    <_>
      <rects>
        <_>
          28 20 4 1 -1.</_>
        <_>
          30 20 2 1 2.</_></rects>
      <tilted>0</tilted></_>
    <_>
      <rects>
        <_>
          30 0 2 6 -1.</_>
        <_>
          30 0 1 3 2.</_>
        <_>
          31 3 1 3 2.</_></rects>
      <tilted>0</tilted></_>
    <_>
      <rects>
        <_>
          30 1 2 8 -1.</_>
        <_>
          30 1 1 4 2.</_>
        <_>
          31 5 1 4 2.</_></rects>
      <tilted>0</tilted></_>
    <_>
      <rects>
        <_>
          30 2 2 22 -1.</_>
        <_>
          31 2 1 22 2.</_></rects>
      <tilted>0</tilted></_>
    <_>
      <rects>
        <_>
          30 4 2 3 -1.</_>
        <_>
          31 4 1 3 2.</_></rects>
      <tilted>0</tilted></_>
    <_>
      <rects>
        <_>
          30 5 2 8 -1.</_>
        <_>
          30 9 2 4 2.</_></rects>
      <tilted>0</tilted></_>
    <_>
      <rects>
        <_>
          30 6 2 1 -1.</_>
        <_>
          31 6 1 1 2.</_></rects>
      <tilted>0</tilted></_>
    <_>
      <rects>
        <_>
          30 7 2 1 -1.</_>
        <_>
          31 7 1 1 2.</_></rects>
      <tilted>0</tilted></_>
    <_>
      <rects>
        <_>
          30 16 2 6 -1.</_>
        <_>
          31 16 1 6 2.</_></rects>
      <tilted>0</tilted></_>
    <_>
      <rects>
        <_>
          30 19 2 4 -1.</_>
        <_>
          30 19 1 2 2.</_>
        <_>
          31 21 1 2 2.</_></rects>
      <tilted>0</tilted></_>
    <_>
      <rects>
        <_>
          31 0 1 24 -1.</_>
        <_>
          31 12 1 12 2.</_></rects>
      <tilted>0</tilted></_>
    <_>
      <rects>
        <_>
          31 1 1 6 -1.</_>
        <_>
          31 4 1 3 2.</_></rects>
      <tilted>0</tilted></_>
    <_>
      <rects>
        <_>
          31 4 1 16 -1.</_>
        <_>
          31 12 1 8 2.</_></rects>
      <tilted>0</tilted></_>
    <_>
      <rects>
        <_>
          31 6 1 10 -1.</_>
        <_>
          31 11 1 5 2.</_></rects>
      <tilted>0</tilted></_>
    <_>
      <rects>
        <_>
          31 9 1 4 -1.</_>
        <_>
          31 11 1 2 2.</_></rects>
      <tilted>0</tilted></_>
    <_>
      <rects>
        <_>
          31 12 1 8 -1.</_>
        <_>
          31 16 1 4 2.</_></rects>
      <tilted>0</tilted></_></features></cascade>
</opencv_storage>
