<?xml version="1.0"?>
<opencv_storage>
<stage10>
  <maxWeakCount>17</maxWeakCount>
  <stageThreshold>-4.9785733222961426e-01</stageThreshold>
  <weakClassifiers>
    <_>
      <internalNodes>
        0 -1 283127 5.5599393090233207e-04</internalNodes>
      <leafValues>
        -5.5009454488754272e-01 1.8552036583423615e-01</leafValues></_>
    <_>
      <internalNodes>
        0 -1 257028 5.3647113963961601e-03</internalNodes>
      <leafValues>
        1.0443619638681412e-01 -6.5760725736618042e-01</leafValues></_>
    <_>
      <internalNodes>
        0 -1 83894 -4.2376290366519243e-05</internalNodes>
      <leafValues>
        -7.9099041223526001e-01 9.4824597239494324e-02</leafValues></_>
    <_>
      <internalNodes>
        0 -1 96572 1.7884296830743551e-03</internalNodes>
      <leafValues>
        8.4182716906070709e-02 -9.6889173984527588e-01</leafValues></_>
    <_>
      <internalNodes>
        0 -1 45453 -2.8184924274682999e-02</internalNodes>
      <leafValues>
        -5.4693710803985596e-01 1.4694508910179138e-01</leafValues></_>
    <_>
      <internalNodes>
        0 -1 261934 3.2842759974300861e-03</internalNodes>
      <leafValues>
        -2.0570975542068481e-01 4.7839459776878357e-01</leafValues></_>
    <_>
      <internalNodes>
        0 -1 122557 1.4885462587699294e-04</internalNodes>
      <leafValues>
        -1.6135117411613464e-01 4.8854956030845642e-01</leafValues></_>
    <_>
      <internalNodes>
        0 -1 148967 -2.0196039986331016e-04</internalNodes>
      <leafValues>
        3.0474165081977844e-01 -3.2174283266067505e-01</leafValues></_>
    <_>
      <internalNodes>
        0 -1 276845 3.9843418635427952e-03</internalNodes>
      <leafValues>
        8.0956764519214630e-02 -9.3611764907836914e-01</leafValues></_>
    <_>
      <internalNodes>
        0 -1 120936 5.8563400059938431e-02</internalNodes>
      <leafValues>
        -9.7829580307006836e-02 9.2533236742019653e-01</leafValues></_>
    <_>
      <internalNodes>
        0 -1 287503 -6.0502439737319946e-04</internalNodes>
      <leafValues>
        5.3127378225326538e-01 -1.3469763100147247e-01</leafValues></_>
    <_>
      <internalNodes>
        0 -1 264688 2.6104550343006849e-03</internalNodes>
      <leafValues>
        -1.7690704762935638e-01 6.1247116327285767e-01</leafValues></_>
    <_>
      <internalNodes>
        0 -1 278150 4.2161664168816060e-05</internalNodes>
      <leafValues>
        -1.9086845219135284e-01 4.4737839698791504e-01</leafValues></_>
    <_>
      <internalNodes>
        0 -1 81224 5.7416269555687904e-04</internalNodes>
      <leafValues>
        -2.6165857911109924e-01 3.5088807344436646e-01</leafValues></_>
    <_>
      <internalNodes>
        0 -1 287560 1.9413279369473457e-03</internalNodes>
      <leafValues>
        1.0853576660156250e-01 -7.9756587743759155e-01</leafValues></_>
    <_>
      <internalNodes>
        0 -1 205865 -1.4242908218875527e-04</internalNodes>
      <leafValues>
        3.5848447680473328e-01 -2.2372375428676605e-01</leafValues></_>
    <_>
      <internalNodes>
        0 -1 273636 2.1795456632389687e-05</internalNodes>
      <leafValues>
        9.4315029680728912e-02 -7.8487384319305420e-01</leafValues></_></weakClassifiers></stage10>
</opencv_storage>
