<?xml version="1.0"?>
<opencv_storage>
<stage5>
  <maxWeakCount>11</maxWeakCount>
  <stageThreshold>-4.3060368299484253e-01</stageThreshold>
  <weakClassifiers>
    <_>
      <internalNodes>
        0 -1 128458 -1.0023637115955353e-01</internalNodes>
      <leafValues>
        7.4757283926010132e-01 -5.0540959835052490e-01</leafValues></_>
    <_>
      <internalNodes>
        0 -1 155453 3.7003112083766609e-05</internalNodes>
      <leafValues>
        1.8360424041748047e-01 -8.6514312028884888e-01</leafValues></_>
    <_>
      <internalNodes>
        0 -1 49475 -1.8388918761047535e-05</internalNodes>
      <leafValues>
        -8.3110427856445313e-01 1.4459724724292755e-01</leafValues></_>
    <_>
      <internalNodes>
        0 -1 162227 1.8077205168083310e-03</internalNodes>
      <leafValues>
        1.6505913436412811e-01 -7.2845220565795898e-01</leafValues></_>
    <_>
      <internalNodes>
        0 -1 162216 -2.8162463568150997e-03</internalNodes>
      <leafValues>
        -6.3702511787414551e-01 2.4385792016983032e-01</leafValues></_>
    <_>
      <internalNodes>
        0 -1 26575 5.1248215138912201e-02</internalNodes>
      <leafValues>
        1.2018929421901703e-01 -8.9730423688888550e-01</leafValues></_>
    <_>
      <internalNodes>
        0 -1 12813 -6.2013696879148483e-04</internalNodes>
      <leafValues>
        5.4416435956954956e-01 -2.2627872228622437e-01</leafValues></_>
    <_>
      <internalNodes>
        0 -1 155453 -1.3311830116435885e-05</internalNodes>
      <leafValues>
        -8.1034308671951294e-01 1.3169690966606140e-01</leafValues></_>
    <_>
      <internalNodes>
        0 -1 159574 -6.5854098647832870e-04</internalNodes>
      <leafValues>
        5.2439051866531372e-01 -2.3133534193038940e-01</leafValues></_>
    <_>
      <internalNodes>
        0 -1 75529 -1.9403544138185680e-04</internalNodes>
      <leafValues>
        3.5092470049858093e-01 -3.7429851293563843e-01</leafValues></_>
    <_>
      <internalNodes>
        0 -1 20770 2.2629778832197189e-02</internalNodes>
      <leafValues>
        2.1446773409843445e-01 -6.5433627367019653e-01</leafValues></_></weakClassifiers></stage5>
</opencv_storage>
