<?xml version="1.0"?>
<opencv_storage>
<stage2>
  <maxWeakCount>10</maxWeakCount>
  <stageThreshold>-2.4519456923007965e-01</stageThreshold>
  <weakClassifiers>
    <_>
      <internalNodes>
        0 -1 161530 5.8880401775240898e-04</internalNodes>
      <leafValues>
        -6.1092150211334229e-01 6.5853661298751831e-01</leafValues></_>
    <_>
      <internalNodes>
        0 -1 96691 -4.2062653228640556e-03</internalNodes>
      <leafValues>
        6.1135607957839966e-01 -3.5475063323974609e-01</leafValues></_>
    <_>
      <internalNodes>
        0 -1 38864 -3.6477765440940857e-01</internalNodes>
      <leafValues>
        9.2892879247665405e-01 -2.5645628571510315e-01</leafValues></_>
    <_>
      <internalNodes>
        0 -1 5010 -1.9439860479906201e-03</internalNodes>
      <leafValues>
        -6.6763919591903687e-01 3.4113943576812744e-01</leafValues></_>
    <_>
      <internalNodes>
        0 -1 152539 7.8088091686367989e-03</internalNodes>
      <leafValues>
        2.5000348687171936e-01 -7.6788270473480225e-01</leafValues></_>
    <_>
      <internalNodes>
        0 -1 88502 -7.5033076107501984e-02</internalNodes>
      <leafValues>
        9.3581169843673706e-01 -2.2229070961475372e-01</leafValues></_>
    <_>
      <internalNodes>
        0 -1 129145 2.0457848906517029e-02</internalNodes>
      <leafValues>
        2.8075283765792847e-01 -9.6848726272583008e-01</leafValues></_>
    <_>
      <internalNodes>
        0 -1 69244 1.5907576680183411e-01</internalNodes>
      <leafValues>
        -3.1570878624916077e-01 8.0606031417846680e-01</leafValues></_>
    <_>
      <internalNodes>
        0 -1 144837 7.7385501936078072e-03</internalNodes>
      <leafValues>
        2.2082659602165222e-01 -7.8114616870880127e-01</leafValues></_>
    <_>
      <internalNodes>
        0 -1 138004 4.2132157250307500e-04</internalNodes>
      <leafValues>
        -3.9386942982673645e-01 4.2221099138259888e-01</leafValues></_></weakClassifiers></stage2>
</opencv_storage>
